MTP
version = 1.1.0
potential_name = MTP1m
scaling = 8.567522240491442e-02
species_count = 2
potential_tag = 
radial_basis_type = RBChebyshev
	min_dist = 1.810885193973494e+00
	max_dist = 5.000000000000000e+00
	radial_basis_size = 8
	radial_funcs_count = 3
	radial_coeffs
		0-0
			{1.580762199897912e-01, 1.578741389204899e-01, 7.861656037183927e-02, 1.214679605499401e-01, 3.860048999569872e-02, 6.937569296610992e-03, -2.380760568671019e-02, -9.028900619867839e-03}
			{2.074848777085914e-01, 3.736216099709266e-01, 3.203140989449377e-01, 2.233654335582124e-01, 1.062072510957772e-01, 8.267421432686185e-02, 1.426815910064943e-02, 8.014781065361831e-03}
			{-3.358451588932785e-01, -9.799047454164386e-02, -3.655816843851860e-01, -7.286227525157687e-02, -1.203808924689229e-01, -5.337007981126832e-02, -1.320901725716732e-02, -9.673652031605568e-03}
		0-1
			{4.689008169849356e-01, 5.920843100382741e-03, 4.068036068318930e-01, 2.596095196404351e-01, 1.762609802911123e-01, 4.204743902600842e-02, -1.993834618376073e-02, -3.624729813397676e-03}
			{3.661965137298888e-02, 1.674304020243443e-01, 1.259020769105670e-01, 1.026184286463064e-01, 7.928813805585071e-02, 6.550149580157547e-02, 2.761927244230212e-02, 1.326030367970113e-03}
			{2.781384645106444e-01, 1.931857671394493e-01, -7.352696266441831e-02, 2.420824051371384e-01, 3.877824018388546e-01, 1.376997448578824e-01, 1.054801499312863e-01, -9.860889253367736e-03}
		1-0
			{2.359306954694241e-01, 7.506311755259144e-03, 1.929090429620569e-01, 3.618608519281833e-02, 3.775373250313808e-02, -2.109611215515675e-02, -1.846041207109996e-02, -1.965428460099006e-02}
			{-3.050407998265712e-01, -4.100100447714990e-01, -4.426474733282053e-01, -2.029479205081614e-01, -1.129700084038581e-01, -1.109112436086171e-01, -6.338520866531840e-02, -3.010999564126504e-02}
			{-2.920623104107308e-01, -3.712762170093072e-02, 1.308946684073067e-01, -1.347742299322414e-01, -4.471551309599895e-01, -1.244831544402476e-01, -9.687778812187867e-02, 2.766205211214471e-02}
		1-1
			{3.791552727081750e-01, 6.279987730878832e-02, 3.578969826751225e-01, 1.853321167558254e-01, 1.687213356916466e-01, 5.147297212978770e-02, 4.902803467885766e-02, 2.071098367604654e-02}
			{-7.845241698138612e-02, -1.234754796916124e-01, -1.634613432902465e-01, -2.092731029047493e-02, 2.648679355484888e-02, 4.098994855334760e-02, 1.266949188863829e-02, 3.468090634934925e-03}
			{-6.711072972724511e-02, -1.752342013303848e-02, -4.962349022470139e-02, -2.987352306453742e-02, -7.095199843088425e-02, -2.719519533046961e-02, -1.015333712799170e-02, -1.319674928769271e-02}
alpha_moments_count = 84
alpha_index_basic_count = 46
alpha_index_basic = {{0, 0, 0, 0}, {0, 1, 0, 0}, {0, 0, 1, 0}, {0, 0, 0, 1}, {0, 2, 0, 0}, {0, 1, 1, 0}, {0, 1, 0, 1}, {0, 0, 2, 0}, {0, 0, 1, 1}, {0, 0, 0, 2}, {0, 3, 0, 0}, {0, 2, 1, 0}, {0, 2, 0, 1}, {0, 1, 2, 0}, {0, 1, 1, 1}, {0, 1, 0, 2}, {0, 0, 3, 0}, {0, 0, 2, 1}, {0, 0, 1, 2}, {0, 0, 0, 3}, {0, 4, 0, 0}, {0, 3, 1, 0}, {0, 3, 0, 1}, {0, 2, 2, 0}, {0, 2, 1, 1}, {0, 2, 0, 2}, {0, 1, 3, 0}, {0, 1, 2, 1}, {0, 1, 1, 2}, {0, 1, 0, 3}, {0, 0, 4, 0}, {0, 0, 3, 1}, {0, 0, 2, 2}, {0, 0, 1, 3}, {0, 0, 0, 4}, {1, 0, 0, 0}, {1, 1, 0, 0}, {1, 0, 1, 0}, {1, 0, 0, 1}, {1, 2, 0, 0}, {1, 1, 1, 0}, {1, 1, 0, 1}, {1, 0, 2, 0}, {1, 0, 1, 1}, {1, 0, 0, 2}, {2, 0, 0, 0}}
alpha_index_times_count = 117
alpha_index_times = {{0, 0, 1, 46}, {1, 1, 1, 47}, {2, 2, 1, 47}, {3, 3, 1, 47}, {1, 4, 1, 48}, {2, 5, 1, 48}, {3, 6, 1, 48}, {1, 5, 1, 49}, {2, 7, 1, 49}, {3, 8, 1, 49}, {1, 6, 1, 50}, {2, 8, 1, 50}, {3, 9, 1, 50}, {4, 4, 1, 51}, {5, 5, 1, 51}, {6, 6, 1, 51}, {4, 5, 1, 52}, {5, 7, 1, 52}, {6, 8, 1, 52}, {4, 6, 1, 53}, {5, 8, 1, 53}, {6, 9, 1, 53}, {5, 5, 1, 54}, {7, 7, 1, 54}, {8, 8, 1, 54}, {5, 6, 1, 55}, {7, 8, 1, 55}, {8, 9, 1, 55}, {6, 6, 1, 56}, {8, 8, 1, 56}, {9, 9, 1, 56}, {4, 4, 1, 57}, {5, 5, 2, 57}, {6, 6, 2, 57}, {7, 7, 1, 57}, {8, 8, 2, 57}, {9, 9, 1, 57}, {4, 10, 1, 58}, {5, 11, 2, 58}, {6, 12, 2, 58}, {7, 13, 1, 58}, {8, 14, 2, 58}, {9, 15, 1, 58}, {4, 11, 1, 59}, {5, 13, 2, 59}, {6, 14, 2, 59}, {7, 16, 1, 59}, {8, 17, 2, 59}, {9, 18, 1, 59}, {4, 12, 1, 60}, {5, 14, 2, 60}, {6, 15, 2, 60}, {7, 17, 1, 60}, {8, 18, 2, 60}, {9, 19, 1, 60}, {10, 10, 1, 61}, {11, 11, 3, 61}, {12, 12, 3, 61}, {13, 13, 3, 61}, {14, 14, 6, 61}, {15, 15, 3, 61}, {16, 16, 1, 61}, {17, 17, 3, 61}, {18, 18, 3, 61}, {19, 19, 1, 61}, {20, 20, 1, 62}, {21, 21, 4, 62}, {22, 22, 4, 62}, {23, 23, 6, 62}, {24, 24, 12, 62}, {25, 25, 6, 62}, {26, 26, 4, 62}, {27, 27, 12, 62}, {28, 28, 12, 62}, {29, 29, 4, 62}, {30, 30, 1, 62}, {31, 31, 4, 62}, {32, 32, 6, 62}, {33, 33, 4, 62}, {34, 34, 1, 62}, {0, 35, 1, 63}, {1, 36, 1, 64}, {2, 37, 1, 64}, {3, 38, 1, 64}, {4, 39, 1, 65}, {5, 40, 2, 65}, {6, 41, 2, 65}, {7, 42, 1, 65}, {8, 43, 2, 65}, {9, 44, 1, 65}, {0, 45, 1, 66}, {35, 35, 1, 67}, {0, 46, 1, 68}, {0, 47, 1, 69}, {0, 57, 1, 70}, {0, 61, 1, 71}, {1, 48, 1, 72}, {2, 49, 1, 72}, {3, 50, 1, 72}, {1, 58, 1, 73}, {2, 59, 1, 73}, {3, 60, 1, 73}, {4, 51, 1, 74}, {5, 52, 2, 74}, {6, 53, 2, 74}, {7, 54, 1, 74}, {8, 55, 2, 74}, {9, 56, 1, 74}, {0, 63, 1, 75}, {0, 64, 1, 76}, {35, 47, 1, 77}, {47, 47, 1, 78}, {0, 68, 1, 79}, {0, 69, 1, 80}, {0, 70, 1, 81}, {0, 72, 1, 82}, {0, 75, 1, 83}}
alpha_scalar_moments = 29
alpha_moment_mapping = {0, 35, 45, 46, 47, 57, 61, 62, 63, 64, 65, 66, 67, 68, 69, 70, 71, 72, 73, 74, 75, 76, 77, 79, 80, 81, 82, 78, 83}
species_coeffs = {-2.134420470564846e+00, -1.423034474325898e+00}
moment_coeffs = {-5.506516835735956e+00, -1.684158555297766e+00, -3.089515230407262e+00, 1.024232666423730e+00, 3.475287772260592e+00, 2.787166020890966e+00, 2.031571062723506e+00, 1.299814834582469e+00, 2.655686752430331e+00, 5.326033987710529e+00, -5.462850218296960e+00, -8.755056730243334e-02, 7.110640372827016e-02, 2.373269132556263e-01, -1.329296276609458e+00, -1.722192136094966e+00, -8.519454554483043e-02, -5.212805441537444e-01, -1.825967403889249e+00, 3.106781585063816e-01, 1.479934534560851e-01, -3.701926748316159e+00, -1.767238576430632e+00, -5.153635475192307e-02, 1.377290827556775e-01, 1.469349337465118e-01, 1.193358081984734e-01, -6.055290052898999e-02, -1.915776898797970e-01}