MTP
version = 1.1.0
potential_name = MTP1m
scaling = 1.000000000000000e+00
species_count = 2
potential_tag = 
radial_basis_type = RBChebyshev
	min_dist = 1.119730000000000e+00
	max_dist = 5.000000000000000e+00
	radial_basis_size = 8
	radial_funcs_count = 1
	radial_coeffs
		0-0
			{-7.484595882292913e-02, 7.093303657484213e-03, -7.699073438022246e-02, 4.180703918908239e-02, 6.397691010492068e-02, -9.513422775754225e-03, 8.472459994347645e-02, 7.240654084042411e-02}
		0-1
			{-7.484595882292913e-02, 7.093303657484213e-03, -7.699073438022246e-02, 4.180703918908239e-02, 6.397691010492068e-02, -9.513422775754225e-03, 8.472459994347645e-02, 7.240654084042411e-02}
		1-0
			{-7.484595882292913e-02, 7.093303657484213e-03, -7.699073438022246e-02, 4.180703918908239e-02, 6.397691010492068e-02, -9.513422775754225e-03, 8.472459994347645e-02, 7.240654084042411e-02}
		1-1
			{-7.484595882292913e-02, 7.093303657484213e-03, -7.699073438022246e-02, 4.180703918908239e-02, 6.397691010492068e-02, -9.513422775754225e-03, 8.472459994347645e-02, 7.240654084042411e-02}
alpha_moments_count = 2
alpha_index_basic_count = 1
alpha_index_basic = {{0, 0, 0, 0}}
alpha_index_times_count = 1
alpha_index_times = {{0, 0, 1, 1}}
alpha_scalar_moments = 2
alpha_moment_mapping = {0, 1}
species_coeffs = 4.560024015951072e+00
